digraph Tree {
node [shape=box, style="filled", color="black", fontname="helvetica"] ;
edge [fontname="helvetica"] ;
0 [label="P-JUS-CKGL <= 17353785.0\ngini = 0.5\nsamples = 795026\nvalue = [397513, 397513]\nclass = 0", fillcolor="#ffffff"] ;
1 [label="T-TPT <= 35.683\ngini = 0.072\nsamples = 405906\nvalue = [390793, 15113]\nclass = 0", fillcolor="#e68641"] ;
0 -> 1 [labeldistance=2.5, labelangle=45, headlabel="True"] ;
2 [label="T-JUS-CKP <= 31.074\ngini = 0.397\nsamples = 3336\nvalue = [910, 2426]\nclass = 1", fillcolor="#83c2ef"] ;
1 -> 2 ;
3 [label="T-TPT <= 12.536\ngini = 0.047\nsamples = 2486\nvalue = [60, 2426]\nclass = 1", fillcolor="#3e9fe6"] ;
2 -> 3 ;
4 [label="T-JUS-CKP <= 30.201\ngini = 0.496\nsamples = 132\nvalue = [60, 72]\nclass = 1", fillcolor="#deeffb"] ;
3 -> 4 ;
5 [label="gini = 0.0\nsamples = 72\nvalue = [0, 72]\nclass = 1", fillcolor="#399de5"] ;
4 -> 5 ;
6 [label="gini = 0.0\nsamples = 60\nvalue = [60, 0]\nclass = 0", fillcolor="#e58139"] ;
4 -> 6 ;
7 [label="gini = 0.0\nsamples = 2354\nvalue = [0, 2354]\nclass = 1", fillcolor="#399de5"] ;
3 -> 7 ;
8 [label="gini = 0.0\nsamples = 850\nvalue = [850, 0]\nclass = 0", fillcolor="#e58139"] ;
2 -> 8 ;
9 [label="P-JUS-CKGL <= 3243236.0\ngini = 0.061\nsamples = 402570\nvalue = [389883, 12687]\nclass = 0", fillcolor="#e6853f"] ;
1 -> 9 ;
10 [label="gini = 0.0\nsamples = 290417\nvalue = [290417, 0]\nclass = 0", fillcolor="#e58139"] ;
9 -> 10 ;
11 [label="P-JUS-CKGL <= 3246327.5\ngini = 0.201\nsamples = 112153\nvalue = [99466, 12687]\nclass = 0", fillcolor="#e89152"] ;
9 -> 11 ;
12 [label="P-MON-CKP <= 6916678.5\ngini = 0.0\nsamples = 12633\nvalue = [1, 12632]\nclass = 1", fillcolor="#399de5"] ;
11 -> 12 ;
13 [label="gini = 0.0\nsamples = 12632\nvalue = [0, 12632]\nclass = 1", fillcolor="#399de5"] ;
12 -> 13 ;
14 [label="gini = 0.0\nsamples = 1\nvalue = [1, 0]\nclass = 0", fillcolor="#e58139"] ;
12 -> 14 ;
15 [label="QGL <= 0.415\ngini = 0.001\nsamples = 99520\nvalue = [99465, 55]\nclass = 0", fillcolor="#e58139"] ;
11 -> 15 ;
16 [label="gini = 0.0\nsamples = 99464\nvalue = [99464, 0]\nclass = 0", fillcolor="#e58139"] ;
15 -> 16 ;
17 [label="T-JUS-CKP <= 31.676\ngini = 0.035\nsamples = 56\nvalue = [1, 55]\nclass = 1", fillcolor="#3d9fe5"] ;
15 -> 17 ;
18 [label="gini = 0.0\nsamples = 55\nvalue = [0, 55]\nclass = 1", fillcolor="#399de5"] ;
17 -> 18 ;
19 [label="gini = 0.0\nsamples = 1\nvalue = [1, 0]\nclass = 0", fillcolor="#e58139"] ;
17 -> 19 ;
20 [label="T-JUS-CKP <= 37.74\ngini = 0.034\nsamples = 389120\nvalue = [6720, 382400]\nclass = 1", fillcolor="#3c9fe5"] ;
0 -> 20 [labeldistance=2.5, labelangle=-45, headlabel="False"] ;
21 [label="QGL <= 1.834\ngini = 0.012\nsamples = 368896\nvalue = [2164, 366732]\nclass = 1", fillcolor="#3a9ee5"] ;
20 -> 21 ;
22 [label="P-JUS-CKGL <= 19734225.0\ngini = 0.007\nsamples = 350702\nvalue = [1233, 349469]\nclass = 1", fillcolor="#3a9de5"] ;
21 -> 22 ;
23 [label="T-JUS-CKP <= 37.522\ngini = 0.001\nsamples = 260895\nvalue = [133, 260762]\nclass = 1", fillcolor="#399de5"] ;
22 -> 23 ;
24 [label="P-PDG <= 23392615.0\ngini = 0.0\nsamples = 249230\nvalue = [11, 249219]\nclass = 1", fillcolor="#399de5"] ;
23 -> 24 ;
25 [label="P-PDG <= 23392605.0\ngini = 0.001\nsamples = 19138\nvalue = [11, 19127]\nclass = 1", fillcolor="#399de5"] ;
24 -> 25 ;
26 [label="P-TPT <= 13720260.0\ngini = 0.001\nsamples = 19136\nvalue = [10, 19126]\nclass = 1", fillcolor="#399de5"] ;
25 -> 26 ;
27 [label="gini = 0.0\nsamples = 12424\nvalue = [0, 12424]\nclass = 1", fillcolor="#399de5"] ;
26 -> 27 ;
28 [label="P-JUS-CKGL <= 19690950.0\ngini = 0.003\nsamples = 6712\nvalue = [10, 6702]\nclass = 1", fillcolor="#399de5"] ;
26 -> 28 ;
29 [label="gini = 0.0\nsamples = 6702\nvalue = [0, 6702]\nclass = 1", fillcolor="#399de5"] ;
28 -> 29 ;
30 [label="gini = 0.0\nsamples = 10\nvalue = [10, 0]\nclass = 0", fillcolor="#e58139"] ;
28 -> 30 ;
31 [label="gini = 0.5\nsamples = 2\nvalue = [1, 1]\nclass = 0", fillcolor="#ffffff"] ;
25 -> 31 ;
32 [label="gini = 0.0\nsamples = 230092\nvalue = [0, 230092]\nclass = 1", fillcolor="#399de5"] ;
24 -> 32 ;
33 [label="P-TPT <= 13882300.0\ngini = 0.021\nsamples = 11665\nvalue = [122, 11543]\nclass = 1", fillcolor="#3b9ee5"] ;
23 -> 33 ;
34 [label="P-TPT <= 13749930.0\ngini = 0.08\nsamples = 2887\nvalue = [120, 2767]\nclass = 1", fillcolor="#42a1e6"] ;
33 -> 34 ;
35 [label="T-TPT <= 56.434\ngini = 0.017\nsamples = 2488\nvalue = [21, 2467]\nclass = 1", fillcolor="#3b9ee5"] ;
34 -> 35 ;
36 [label="P-TPT <= 13712445.0\ngini = 0.42\nsamples = 10\nvalue = [3, 7]\nclass = 1", fillcolor="#8ec7f0"] ;
35 -> 36 ;
37 [label="gini = 0.0\nsamples = 7\nvalue = [0, 7]\nclass = 1", fillcolor="#399de5"] ;
36 -> 37 ;
38 [label="gini = 0.0\nsamples = 3\nvalue = [3, 0]\nclass = 0", fillcolor="#e58139"] ;
36 -> 38 ;
39 [label="P-PDG <= 23360910.0\ngini = 0.014\nsamples = 2478\nvalue = [18, 2460]\nclass = 1", fillcolor="#3a9ee5"] ;
35 -> 39 ;
40 [label="gini = 0.0\nsamples = 1763\nvalue = [0, 1763]\nclass = 1", fillcolor="#399de5"] ;
39 -> 40 ;
41 [label="QGL <= 0.596\ngini = 0.049\nsamples = 715\nvalue = [18, 697]\nclass = 1", fillcolor="#3ea0e6"] ;
39 -> 41 ;
42 [label="P-PDG <= 23362815.0\ngini = 0.49\nsamples = 7\nvalue = [3, 4]\nclass = 1", fillcolor="#cee6f8"] ;
41 -> 42 ;
43 [label="gini = 0.0\nsamples = 4\nvalue = [0, 4]\nclass = 1", fillcolor="#399de5"] ;
42 -> 43 ;
44 [label="gini = 0.0\nsamples = 3\nvalue = [3, 0]\nclass = 0", fillcolor="#e58139"] ;
42 -> 44 ;
45 [label="P-PDG <= 23361060.0\ngini = 0.041\nsamples = 708\nvalue = [15, 693]\nclass = 1", fillcolor="#3d9fe6"] ;
41 -> 45 ;
46 [label="gini = 0.0\nsamples = 1\nvalue = [1, 0]\nclass = 0", fillcolor="#e58139"] ;
45 -> 46 ;
47 [label="T-TPT <= 56.779\ngini = 0.039\nsamples = 707\nvalue = [14, 693]\nclass = 1", fillcolor="#3d9fe6"] ;
45 -> 47 ;
48 [label="P-JUS-CKGL <= 19664160.0\ngini = 0.136\nsamples = 177\nvalue = [13, 164]\nclass = 1", fillcolor="#49a5e7"] ;
47 -> 48 ;
49 [label="P-TPT <= 13639945.0\ngini = 0.439\nsamples = 40\nvalue = [13, 27]\nclass = 1", fillcolor="#98ccf2"] ;
48 -> 49 ;
50 [label="gini = 0.0\nsamples = 26\nvalue = [0, 26]\nclass = 1", fillcolor="#399de5"] ;
49 -> 50 ;
51 [label="P-MON-CKP <= 2635370.0\ngini = 0.133\nsamples = 14\nvalue = [13, 1]\nclass = 0", fillcolor="#e78b48"] ;
49 -> 51 ;
52 [label="gini = 0.0\nsamples = 13\nvalue = [13, 0]\nclass = 0", fillcolor="#e58139"] ;
51 -> 52 ;
53 [label="gini = 0.0\nsamples = 1\nvalue = [0, 1]\nclass = 1", fillcolor="#399de5"] ;
51 -> 53 ;
54 [label="gini = 0.0\nsamples = 137\nvalue = [0, 137]\nclass = 1", fillcolor="#399de5"] ;
48 -> 54 ;
55 [label="T-TPT <= 56.79\ngini = 0.004\nsamples = 530\nvalue = [1, 529]\nclass = 1", fillcolor="#399de5"] ;
47 -> 55 ;
56 [label="P-MON-CKP <= 2150522.0\ngini = 0.057\nsamples = 34\nvalue = [1, 33]\nclass = 1", fillcolor="#3fa0e6"] ;
55 -> 56 ;
57 [label="gini = 0.0\nsamples = 33\nvalue = [0, 33]\nclass = 1", fillcolor="#399de5"] ;
56 -> 57 ;
58 [label="gini = 0.0\nsamples = 1\nvalue = [1, 0]\nclass = 0", fillcolor="#e58139"] ;
56 -> 58 ;
59 [label="gini = 0.0\nsamples = 496\nvalue = [0, 496]\nclass = 1", fillcolor="#399de5"] ;
55 -> 59 ;
60 [label="P-MON-CKP <= 1917605.5\ngini = 0.373\nsamples = 399\nvalue = [99, 300]\nclass = 1", fillcolor="#7abdee"] ;
34 -> 60 ;
61 [label="gini = 0.0\nsamples = 168\nvalue = [0, 168]\nclass = 1", fillcolor="#399de5"] ;
60 -> 61 ;
62 [label="T-TPT <= 56.337\ngini = 0.49\nsamples = 231\nvalue = [99, 132]\nclass = 1", fillcolor="#cee6f8"] ;
60 -> 62 ;
63 [label="P-JUS-CKGL <= 19613980.0\ngini = 0.163\nsamples = 145\nvalue = [13, 132]\nclass = 1", fillcolor="#4ca7e8"] ;
62 -> 63 ;
64 [label="gini = 0.0\nsamples = 132\nvalue = [0, 132]\nclass = 1", fillcolor="#399de5"] ;
63 -> 64 ;
65 [label="gini = 0.0\nsamples = 13\nvalue = [13, 0]\nclass = 0", fillcolor="#e58139"] ;
63 -> 65 ;
66 [label="gini = 0.0\nsamples = 86\nvalue = [86, 0]\nclass = 0", fillcolor="#e58139"] ;
62 -> 66 ;
67 [label="QGL <= 1.603\ngini = 0.0\nsamples = 8778\nvalue = [2, 8776]\nclass = 1", fillcolor="#399de5"] ;
33 -> 67 ;
68 [label="P-TPT <= 13890475.0\ngini = 0.0\nsamples = 8397\nvalue = [1, 8396]\nclass = 1", fillcolor="#399de5"] ;
67 -> 68 ;
69 [label="QGL <= 1.502\ngini = 0.036\nsamples = 54\nvalue = [1, 53]\nclass = 1", fillcolor="#3d9fe5"] ;
68 -> 69 ;
70 [label="P-PDG <= 23483725.0\ngini = 0.18\nsamples = 10\nvalue = [1, 9]\nclass = 1", fillcolor="#4fa8e8"] ;
69 -> 70 ;
71 [label="gini = 0.0\nsamples = 1\nvalue = [1, 0]\nclass = 0", fillcolor="#e58139"] ;
70 -> 71 ;
72 [label="gini = 0.0\nsamples = 9\nvalue = [0, 9]\nclass = 1", fillcolor="#399de5"] ;
70 -> 72 ;
73 [label="gini = 0.0\nsamples = 44\nvalue = [0, 44]\nclass = 1", fillcolor="#399de5"] ;
69 -> 73 ;
74 [label="gini = 0.0\nsamples = 8343\nvalue = [0, 8343]\nclass = 1", fillcolor="#399de5"] ;
68 -> 74 ;
75 [label="P-JUS-CKGL <= 19642645.0\ngini = 0.005\nsamples = 381\nvalue = [1, 380]\nclass = 1", fillcolor="#3a9de5"] ;
67 -> 75 ;
76 [label="gini = 0.0\nsamples = 380\nvalue = [0, 380]\nclass = 1", fillcolor="#399de5"] ;
75 -> 76 ;
77 [label="gini = 0.0\nsamples = 1\nvalue = [1, 0]\nclass = 0", fillcolor="#e58139"] ;
75 -> 77 ;
78 [label="T-JUS-CKP <= 36.95\ngini = 0.024\nsamples = 89807\nvalue = [1100, 88707]\nclass = 1", fillcolor="#3b9ee5"] ;
22 -> 78 ;
79 [label="gini = 0.0\nsamples = 88080\nvalue = [0, 88080]\nclass = 1", fillcolor="#399de5"] ;
78 -> 79 ;
80 [label="P-TPT <= 13629370.0\ngini = 0.462\nsamples = 1727\nvalue = [1100, 627]\nclass = 0", fillcolor="#f4c9aa"] ;
78 -> 80 ;
81 [label="T-TPT <= 56.725\ngini = 0.151\nsamples = 680\nvalue = [56, 624]\nclass = 1", fillcolor="#4ba6e7"] ;
80 -> 81 ;
82 [label="gini = 0.0\nsamples = 24\nvalue = [24, 0]\nclass = 0", fillcolor="#e58139"] ;
81 -> 82 ;
83 [label="T-TPT <= 56.813\ngini = 0.093\nsamples = 656\nvalue = [32, 624]\nclass = 1", fillcolor="#43a2e6"] ;
81 -> 83 ;
84 [label="T-JUS-CKP <= 37.721\ngini = 0.073\nsamples = 605\nvalue = [23, 582]\nclass = 1", fillcolor="#41a1e6"] ;
83 -> 84 ;
85 [label="P-TPT <= 13565970.0\ngini = 0.042\nsamples = 560\nvalue = [12, 548]\nclass = 1", fillcolor="#3d9fe6"] ;
84 -> 85 ;
86 [label="gini = 0.0\nsamples = 305\nvalue = [0, 305]\nclass = 1", fillcolor="#399de5"] ;
85 -> 86 ;
87 [label="P-PDG <= 23343910.0\ngini = 0.09\nsamples = 255\nvalue = [12, 243]\nclass = 1", fillcolor="#43a2e6"] ;
85 -> 87 ;
88 [label="T-JUS-CKP <= 37.588\ngini = 0.168\nsamples = 130\nvalue = [12, 118]\nclass = 1", fillcolor="#4da7e8"] ;
87 -> 88 ;
89 [label="gini = 0.0\nsamples = 47\nvalue = [0, 47]\nclass = 1", fillcolor="#399de5"] ;
88 -> 89 ;
90 [label="P-PDG <= 23339460.0\ngini = 0.247\nsamples = 83\nvalue = [12, 71]\nclass = 1", fillcolor="#5aaee9"] ;
88 -> 90 ;
91 [label="T-TPT <= 56.795\ngini = 0.2\nsamples = 80\nvalue = [9, 71]\nclass = 1", fillcolor="#52a9e8"] ;
90 -> 91 ;
92 [label="QGL <= 1.66\ngini = 0.101\nsamples = 75\nvalue = [4, 71]\nclass = 1", fillcolor="#44a3e6"] ;
91 -> 92 ;
93 [label="P-PDG <= 23331810.0\ngini = 0.056\nsamples = 69\nvalue = [2, 67]\nclass = 1", fillcolor="#3fa0e6"] ;
92 -> 93 ;
94 [label="gini = 0.0\nsamples = 38\nvalue = [0, 38]\nclass = 1", fillcolor="#399de5"] ;
93 -> 94 ;
95 [label="T-TPT <= 56.782\ngini = 0.121\nsamples = 31\nvalue = [2, 29]\nclass = 1", fillcolor="#47a4e7"] ;
93 -> 95 ;
96 [label="gini = 0.0\nsamples = 29\nvalue = [0, 29]\nclass = 1", fillcolor="#399de5"] ;
95 -> 96 ;
97 [label="gini = 0.0\nsamples = 2\nvalue = [2, 0]\nclass = 0", fillcolor="#e58139"] ;
95 -> 97 ;
98 [label="P-JUS-CKGL <= 19795010.0\ngini = 0.444\nsamples = 6\nvalue = [2, 4]\nclass = 1", fillcolor="#9ccef2"] ;
92 -> 98 ;
99 [label="gini = 0.0\nsamples = 2\nvalue = [2, 0]\nclass = 0", fillcolor="#e58139"] ;
98 -> 99 ;
100 [label="gini = 0.0\nsamples = 4\nvalue = [0, 4]\nclass = 1", fillcolor="#399de5"] ;
98 -> 100 ;
101 [label="gini = 0.0\nsamples = 5\nvalue = [5, 0]\nclass = 0", fillcolor="#e58139"] ;
91 -> 101 ;
102 [label="gini = 0.0\nsamples = 3\nvalue = [3, 0]\nclass = 0", fillcolor="#e58139"] ;
90 -> 102 ;
103 [label="gini = 0.0\nsamples = 125\nvalue = [0, 125]\nclass = 1", fillcolor="#399de5"] ;
87 -> 103 ;
104 [label="P-PDG <= 23335655.0\ngini = 0.369\nsamples = 45\nvalue = [11, 34]\nclass = 1", fillcolor="#79bded"] ;
84 -> 104 ;
105 [label="gini = 0.0\nsamples = 7\nvalue = [7, 0]\nclass = 0", fillcolor="#e58139"] ;
104 -> 105 ;
106 [label="P-PDG <= 23341275.0\ngini = 0.188\nsamples = 38\nvalue = [4, 34]\nclass = 1", fillcolor="#50a9e8"] ;
104 -> 106 ;
107 [label="gini = 0.0\nsamples = 24\nvalue = [0, 24]\nclass = 1", fillcolor="#399de5"] ;
106 -> 107 ;
108 [label="P-JUS-CKGL <= 19754590.0\ngini = 0.408\nsamples = 14\nvalue = [4, 10]\nclass = 1", fillcolor="#88c4ef"] ;
106 -> 108 ;
109 [label="gini = 0.0\nsamples = 2\nvalue = [2, 0]\nclass = 0", fillcolor="#e58139"] ;
108 -> 109 ;
110 [label="P-PDG <= 23353655.0\ngini = 0.278\nsamples = 12\nvalue = [2, 10]\nclass = 1", fillcolor="#61b1ea"] ;
108 -> 110 ;
111 [label="gini = 0.0\nsamples = 2\nvalue = [2, 0]\nclass = 0", fillcolor="#e58139"] ;
110 -> 111 ;
112 [label="gini = 0.0\nsamples = 10\nvalue = [0, 10]\nclass = 1", fillcolor="#399de5"] ;
110 -> 112 ;
113 [label="P-MON-CKP <= 2256658.0\ngini = 0.291\nsamples = 51\nvalue = [9, 42]\nclass = 1", fillcolor="#63b2eb"] ;
83 -> 113 ;
114 [label="gini = 0.0\nsamples = 6\nvalue = [6, 0]\nclass = 0", fillcolor="#e58139"] ;
113 -> 114 ;
115 [label="P-TPT <= 13544910.0\ngini = 0.124\nsamples = 45\nvalue = [3, 42]\nclass = 1", fillcolor="#47a4e7"] ;
113 -> 115 ;
116 [label="gini = 0.0\nsamples = 42\nvalue = [0, 42]\nclass = 1", fillcolor="#399de5"] ;
115 -> 116 ;
117 [label="gini = 0.0\nsamples = 3\nvalue = [3, 0]\nclass = 0", fillcolor="#e58139"] ;
115 -> 117 ;
118 [label="P-TPT <= 13631395.0\ngini = 0.006\nsamples = 1047\nvalue = [1044, 3]\nclass = 0", fillcolor="#e5813a"] ;
80 -> 118 ;
119 [label="P-TPT <= 13630850.0\ngini = 0.49\nsamples = 7\nvalue = [4, 3]\nclass = 0", fillcolor="#f8e0ce"] ;
118 -> 119 ;
120 [label="gini = 0.0\nsamples = 4\nvalue = [4, 0]\nclass = 0", fillcolor="#e58139"] ;
119 -> 120 ;
121 [label="gini = 0.0\nsamples = 3\nvalue = [0, 3]\nclass = 1", fillcolor="#399de5"] ;
119 -> 121 ;
122 [label="gini = 0.0\nsamples = 1040\nvalue = [1040, 0]\nclass = 0", fillcolor="#e58139"] ;
118 -> 122 ;
123 [label="P-PDG <= 23499105.0\ngini = 0.097\nsamples = 18194\nvalue = [931, 17263]\nclass = 1", fillcolor="#44a2e6"] ;
21 -> 123 ;
124 [label="P-MON-CKP <= 2418173.5\ngini = 0.358\nsamples = 3827\nvalue = [893, 2934]\nclass = 1", fillcolor="#75bbed"] ;
123 -> 124 ;
125 [label="T-JUS-CKP <= 36.995\ngini = 0.014\nsamples = 1524\nvalue = [11, 1513]\nclass = 1", fillcolor="#3a9ee5"] ;
124 -> 125 ;
126 [label="gini = 0.0\nsamples = 1401\nvalue = [0, 1401]\nclass = 1", fillcolor="#399de5"] ;
125 -> 126 ;
127 [label="T-TPT <= 56.621\ngini = 0.163\nsamples = 123\nvalue = [11, 112]\nclass = 1", fillcolor="#4ca7e8"] ;
125 -> 127 ;
128 [label="gini = 0.0\nsamples = 11\nvalue = [11, 0]\nclass = 0", fillcolor="#e58139"] ;
127 -> 128 ;
129 [label="gini = 0.0\nsamples = 112\nvalue = [0, 112]\nclass = 1", fillcolor="#399de5"] ;
127 -> 129 ;
130 [label="T-JUS-CKP <= 37.098\ngini = 0.473\nsamples = 2303\nvalue = [882, 1421]\nclass = 1", fillcolor="#b4daf5"] ;
124 -> 130 ;
131 [label="gini = 0.0\nsamples = 1357\nvalue = [0, 1357]\nclass = 1", fillcolor="#399de5"] ;
130 -> 131 ;
132 [label="QGL <= 2.088\ngini = 0.126\nsamples = 946\nvalue = [882, 64]\nclass = 0", fillcolor="#e78a47"] ;
130 -> 132 ;
133 [label="P-JUS-CKGL <= 19650045.0\ngini = 0.098\nsamples = 928\nvalue = [880, 48]\nclass = 0", fillcolor="#e68844"] ;
132 -> 133 ;
134 [label="gini = 0.0\nsamples = 48\nvalue = [0, 48]\nclass = 1", fillcolor="#399de5"] ;
133 -> 134 ;
135 [label="gini = 0.0\nsamples = 880\nvalue = [880, 0]\nclass = 0", fillcolor="#e58139"] ;
133 -> 135 ;
136 [label="P-MON-CKP <= 3002528.5\ngini = 0.198\nsamples = 18\nvalue = [2, 16]\nclass = 1", fillcolor="#52a9e8"] ;
132 -> 136 ;
137 [label="gini = 0.0\nsamples = 2\nvalue = [2, 0]\nclass = 0", fillcolor="#e58139"] ;
136 -> 137 ;
138 [label="gini = 0.0\nsamples = 16\nvalue = [0, 16]\nclass = 1", fillcolor="#399de5"] ;
136 -> 138 ;
139 [label="T-JUS-CKP <= 36.694\ngini = 0.005\nsamples = 14367\nvalue = [38, 14329]\nclass = 1", fillcolor="#3a9de5"] ;
123 -> 139 ;
140 [label="gini = 0.0\nsamples = 14329\nvalue = [0, 14329]\nclass = 1", fillcolor="#399de5"] ;
139 -> 140 ;
141 [label="gini = 0.0\nsamples = 38\nvalue = [38, 0]\nclass = 0", fillcolor="#e58139"] ;
139 -> 141 ;
142 [label="P-JUS-CKGL <= 19813375.0\ngini = 0.349\nsamples = 20224\nvalue = [4556, 15668]\nclass = 1", fillcolor="#73b9ed"] ;
20 -> 142 ;
143 [label="T-JUS-CKP <= 39.954\ngini = 0.18\nsamples = 17064\nvalue = [1702, 15362]\nclass = 1", fillcolor="#4fa8e8"] ;
142 -> 143 ;
144 [label="P-PDG <= 23482785.0\ngini = 0.154\nsamples = 16767\nvalue = [1405, 15362]\nclass = 1", fillcolor="#4ba6e7"] ;
143 -> 144 ;
145 [label="T-TPT <= 56.418\ngini = 0.231\nsamples = 10007\nvalue = [1334, 8673]\nclass = 1", fillcolor="#57ace9"] ;
144 -> 145 ;
146 [label="P-TPT <= 13780145.0\ngini = 0.284\nsamples = 1097\nvalue = [909, 188]\nclass = 0", fillcolor="#ea9b62"] ;
145 -> 146 ;
147 [label="T-JUS-CKP <= 37.801\ngini = 0.293\nsamples = 112\nvalue = [20, 92]\nclass = 1", fillcolor="#64b2eb"] ;
146 -> 147 ;
148 [label="P-JUS-CKGL <= 19539865.0\ngini = 0.308\nsamples = 21\nvalue = [17, 4]\nclass = 0", fillcolor="#eb9f68"] ;
147 -> 148 ;
149 [label="gini = 0.0\nsamples = 4\nvalue = [0, 4]\nclass = 1", fillcolor="#399de5"] ;
148 -> 149 ;
150 [label="gini = 0.0\nsamples = 17\nvalue = [17, 0]\nclass = 0", fillcolor="#e58139"] ;
148 -> 150 ;
151 [label="P-JUS-CKGL <= 19615435.0\ngini = 0.064\nsamples = 91\nvalue = [3, 88]\nclass = 1", fillcolor="#40a0e6"] ;
147 -> 151 ;
152 [label="gini = 0.0\nsamples = 88\nvalue = [0, 88]\nclass = 1", fillcolor="#399de5"] ;
151 -> 152 ;
153 [label="gini = 0.0\nsamples = 3\nvalue = [3, 0]\nclass = 0", fillcolor="#e58139"] ;
151 -> 153 ;
154 [label="T-TPT <= 56.21\ngini = 0.176\nsamples = 985\nvalue = [889, 96]\nclass = 0", fillcolor="#e88f4e"] ;
146 -> 154 ;
155 [label="P-TPT <= 13957710.0\ngini = 0.213\nsamples = 66\nvalue = [8, 58]\nclass = 1", fillcolor="#54abe9"] ;
154 -> 155 ;
156 [label="P-MON-CKP <= 2844157.5\ngini = 0.494\nsamples = 18\nvalue = [8, 10]\nclass = 1", fillcolor="#d7ebfa"] ;
155 -> 156 ;
157 [label="gini = 0.0\nsamples = 8\nvalue = [8, 0]\nclass = 0", fillcolor="#e58139"] ;
156 -> 157 ;
158 [label="gini = 0.0\nsamples = 10\nvalue = [0, 10]\nclass = 1", fillcolor="#399de5"] ;
156 -> 158 ;
159 [label="gini = 0.0\nsamples = 48\nvalue = [0, 48]\nclass = 1", fillcolor="#399de5"] ;
155 -> 159 ;
160 [label="T-JUS-CKP <= 38.206\ngini = 0.079\nsamples = 919\nvalue = [881, 38]\nclass = 0", fillcolor="#e68642"] ;
154 -> 160 ;
161 [label="P-TPT <= 13966275.0\ngini = 0.011\nsamples = 886\nvalue = [881, 5]\nclass = 0", fillcolor="#e5823a"] ;
160 -> 161 ;
162 [label="gini = 0.0\nsamples = 881\nvalue = [881, 0]\nclass = 0", fillcolor="#e58139"] ;
161 -> 162 ;
163 [label="gini = 0.0\nsamples = 5\nvalue = [0, 5]\nclass = 1", fillcolor="#399de5"] ;
161 -> 163 ;
164 [label="gini = 0.0\nsamples = 33\nvalue = [0, 33]\nclass = 1", fillcolor="#399de5"] ;
160 -> 164 ;
165 [label="P-JUS-CKGL <= 19713620.0\ngini = 0.091\nsamples = 8910\nvalue = [425, 8485]\nclass = 1", fillcolor="#43a2e6"] ;
145 -> 165 ;
166 [label="T-JUS-CKP <= 37.807\ngini = 0.021\nsamples = 6447\nvalue = [67, 6380]\nclass = 1", fillcolor="#3b9ee5"] ;
165 -> 166 ;
167 [label="P-TPT <= 13564405.0\ngini = 0.091\nsamples = 884\nvalue = [42, 842]\nclass = 1", fillcolor="#43a2e6"] ;
166 -> 167 ;
168 [label="gini = 0.0\nsamples = 434\nvalue = [0, 434]\nclass = 1", fillcolor="#399de5"] ;
167 -> 168 ;
169 [label="P-MON-CKP <= 2093173.5\ngini = 0.169\nsamples = 450\nvalue = [42, 408]\nclass = 1", fillcolor="#4da7e8"] ;
167 -> 169 ;
170 [label="gini = 0.0\nsamples = 313\nvalue = [0, 313]\nclass = 1", fillcolor="#399de5"] ;
169 -> 170 ;
171 [label="P-JUS-CKGL <= 19680345.0\ngini = 0.425\nsamples = 137\nvalue = [42, 95]\nclass = 1", fillcolor="#91c8f0"] ;
169 -> 171 ;
172 [label="P-JUS-CKGL <= 19580955.0\ngini = 0.497\nsamples = 91\nvalue = [42, 49]\nclass = 1", fillcolor="#e3f1fb"] ;
171 -> 172 ;
173 [label="P-MON-CKP <= 2362302.5\ngini = 0.219\nsamples = 56\nvalue = [7, 49]\nclass = 1", fillcolor="#55abe9"] ;
172 -> 173 ;
174 [label="gini = 0.0\nsamples = 7\nvalue = [7, 0]\nclass = 0", fillcolor="#e58139"] ;
173 -> 174 ;
175 [label="gini = 0.0\nsamples = 49\nvalue = [0, 49]\nclass = 1", fillcolor="#399de5"] ;
173 -> 175 ;
176 [label="gini = 0.0\nsamples = 35\nvalue = [35, 0]\nclass = 0", fillcolor="#e58139"] ;
172 -> 176 ;
177 [label="gini = 0.0\nsamples = 46\nvalue = [0, 46]\nclass = 1", fillcolor="#399de5"] ;
171 -> 177 ;
178 [label="QGL <= 2.185\ngini = 0.009\nsamples = 5563\nvalue = [25, 5538]\nclass = 1", fillcolor="#3a9de5"] ;
166 -> 178 ;
179 [label="T-JUS-CKP <= 38.13\ngini = 0.008\nsamples = 5561\nvalue = [23, 5538]\nclass = 1", fillcolor="#3a9de5"] ;
178 -> 179 ;
180 [label="T-TPT <= 56.515\ngini = 0.015\nsamples = 3062\nvalue = [23, 3039]\nclass = 1", fillcolor="#3a9ee5"] ;
179 -> 180 ;
181 [label="P-JUS-CKGL <= 19652530.0\ngini = 0.146\nsamples = 101\nvalue = [8, 93]\nclass = 1", fillcolor="#4aa5e7"] ;
180 -> 181 ;
182 [label="gini = 0.0\nsamples = 93\nvalue = [0, 93]\nclass = 1", fillcolor="#399de5"] ;
181 -> 182 ;
183 [label="gini = 0.0\nsamples = 8\nvalue = [8, 0]\nclass = 0", fillcolor="#e58139"] ;
181 -> 183 ;
184 [label="T-JUS-CKP <= 38.13\ngini = 0.01\nsamples = 2961\nvalue = [15, 2946]\nclass = 1", fillcolor="#3a9de5"] ;
180 -> 184 ;
185 [label="P-JUS-CKGL <= 19700465.0\ngini = 0.009\nsamples = 2960\nvalue = [14, 2946]\nclass = 1", fillcolor="#3a9de5"] ;
184 -> 185 ;
186 [label="QGL <= 2.048\ngini = 0.006\nsamples = 2787\nvalue = [9, 2778]\nclass = 1", fillcolor="#3a9de5"] ;
185 -> 186 ;
187 [label="P-TPT <= 13699965.0\ngini = 0.006\nsamples = 2782\nvalue = [8, 2774]\nclass = 1", fillcolor="#3a9de5"] ;
186 -> 187 ;
188 [label="P-JUS-CKGL <= 19495315.0\ngini = 0.012\nsamples = 1341\nvalue = [8, 1333]\nclass = 1", fillcolor="#3a9ee5"] ;
187 -> 188 ;
189 [label="T-JUS-CKP <= 37.843\ngini = 0.05\nsamples = 309\nvalue = [8, 301]\nclass = 1", fillcolor="#3ea0e6"] ;
188 -> 189 ;
190 [label="P-MON-CKP <= 2453135.5\ngini = 0.32\nsamples = 30\nvalue = [6, 24]\nclass = 1", fillcolor="#6ab6ec"] ;
189 -> 190 ;
191 [label="T-TPT <= 56.836\ngini = 0.444\nsamples = 9\nvalue = [6, 3]\nclass = 0", fillcolor="#f2c09c"] ;
190 -> 191 ;
192 [label="gini = 0.0\nsamples = 6\nvalue = [6, 0]\nclass = 0", fillcolor="#e58139"] ;
191 -> 192 ;
193 [label="gini = 0.0\nsamples = 3\nvalue = [0, 3]\nclass = 1", fillcolor="#399de5"] ;
191 -> 193 ;
194 [label="gini = 0.0\nsamples = 21\nvalue = [0, 21]\nclass = 1", fillcolor="#399de5"] ;
190 -> 194 ;
195 [label="P-TPT <= 13699875.0\ngini = 0.014\nsamples = 279\nvalue = [2, 277]\nclass = 1", fillcolor="#3a9ee5"] ;
189 -> 195 ;
196 [label="P-PDG <= 23409475.0\ngini = 0.007\nsamples = 278\nvalue = [1, 277]\nclass = 1", fillcolor="#3a9de5"] ;
195 -> 196 ;
197 [label="gini = 0.0\nsamples = 266\nvalue = [0, 266]\nclass = 1", fillcolor="#399de5"] ;
196 -> 197 ;
198 [label="P-TPT <= 13692145.0\ngini = 0.153\nsamples = 12\nvalue = [1, 11]\nclass = 1", fillcolor="#4ba6e7"] ;
196 -> 198 ;
199 [label="gini = 0.5\nsamples = 2\nvalue = [1, 1]\nclass = 0", fillcolor="#ffffff"] ;
198 -> 199 ;
200 [label="gini = 0.0\nsamples = 10\nvalue = [0, 10]\nclass = 1", fillcolor="#399de5"] ;
198 -> 200 ;
201 [label="gini = 0.0\nsamples = 1\nvalue = [1, 0]\nclass = 0", fillcolor="#e58139"] ;
195 -> 201 ;
202 [label="gini = 0.0\nsamples = 1032\nvalue = [0, 1032]\nclass = 1", fillcolor="#399de5"] ;
188 -> 202 ;
203 [label="gini = 0.0\nsamples = 1441\nvalue = [0, 1441]\nclass = 1", fillcolor="#399de5"] ;
187 -> 203 ;
204 [label="T-JUS-CKP <= 37.864\ngini = 0.32\nsamples = 5\nvalue = [1, 4]\nclass = 1", fillcolor="#6ab6ec"] ;
186 -> 204 ;
205 [label="gini = 0.0\nsamples = 4\nvalue = [0, 4]\nclass = 1", fillcolor="#399de5"] ;
204 -> 205 ;
206 [label="gini = 0.0\nsamples = 1\nvalue = [1, 0]\nclass = 0", fillcolor="#e58139"] ;
204 -> 206 ;
207 [label="T-TPT <= 56.605\ngini = 0.056\nsamples = 173\nvalue = [5, 168]\nclass = 1", fillcolor="#3fa0e6"] ;
185 -> 207 ;
208 [label="gini = 0.0\nsamples = 5\nvalue = [5, 0]\nclass = 0", fillcolor="#e58139"] ;
207 -> 208 ;
209 [label="gini = 0.0\nsamples = 168\nvalue = [0, 168]\nclass = 1", fillcolor="#399de5"] ;
207 -> 209 ;
210 [label="gini = 0.0\nsamples = 1\nvalue = [1, 0]\nclass = 0", fillcolor="#e58139"] ;
184 -> 210 ;
211 [label="gini = 0.0\nsamples = 2499\nvalue = [0, 2499]\nclass = 1", fillcolor="#399de5"] ;
179 -> 211 ;
212 [label="gini = 0.0\nsamples = 2\nvalue = [2, 0]\nclass = 0", fillcolor="#e58139"] ;
178 -> 212 ;
213 [label="P-TPT <= 13842505.0\ngini = 0.248\nsamples = 2463\nvalue = [358, 2105]\nclass = 1", fillcolor="#5baee9"] ;
165 -> 213 ;
214 [label="QGL <= 1.125\ngini = 0.289\nsamples = 2001\nvalue = [350, 1651]\nclass = 1", fillcolor="#63b2eb"] ;
213 -> 214 ;
215 [label="T-TPT <= 56.511\ngini = 0.069\nsamples = 252\nvalue = [9, 243]\nclass = 1", fillcolor="#40a1e6"] ;
214 -> 215 ;
216 [label="gini = 0.0\nsamples = 2\nvalue = [2, 0]\nclass = 0", fillcolor="#e58139"] ;
215 -> 216 ;
217 [label="P-JUS-CKGL <= 19790525.0\ngini = 0.054\nsamples = 250\nvalue = [7, 243]\nclass = 1", fillcolor="#3fa0e6"] ;
215 -> 217 ;
218 [label="P-PDG <= 23438285.0\ngini = 0.032\nsamples = 247\nvalue = [4, 243]\nclass = 1", fillcolor="#3c9fe5"] ;
217 -> 218 ;
219 [label="P-MON-CKP <= 2145030.0\ngini = 0.009\nsamples = 213\nvalue = [1, 212]\nclass = 1", fillcolor="#3a9de5"] ;
218 -> 219 ;
220 [label="T-TPT <= 56.725\ngini = 0.034\nsamples = 57\nvalue = [1, 56]\nclass = 1", fillcolor="#3d9fe5"] ;
219 -> 220 ;
221 [label="gini = 0.0\nsamples = 41\nvalue = [0, 41]\nclass = 1", fillcolor="#399de5"] ;
220 -> 221 ;
222 [label="QGL <= 0.987\ngini = 0.117\nsamples = 16\nvalue = [1, 15]\nclass = 1", fillcolor="#46a4e7"] ;
220 -> 222 ;
223 [label="gini = 0.0\nsamples = 11\nvalue = [0, 11]\nclass = 1", fillcolor="#399de5"] ;
222 -> 223 ;
224 [label="QGL <= 1.004\ngini = 0.32\nsamples = 5\nvalue = [1, 4]\nclass = 1", fillcolor="#6ab6ec"] ;
222 -> 224 ;
225 [label="gini = 0.0\nsamples = 1\nvalue = [1, 0]\nclass = 0", fillcolor="#e58139"] ;
224 -> 225 ;
226 [label="gini = 0.0\nsamples = 4\nvalue = [0, 4]\nclass = 1", fillcolor="#399de5"] ;
224 -> 226 ;
227 [label="gini = 0.0\nsamples = 156\nvalue = [0, 156]\nclass = 1", fillcolor="#399de5"] ;
219 -> 227 ;
228 [label="P-TPT <= 13813060.0\ngini = 0.161\nsamples = 34\nvalue = [3, 31]\nclass = 1", fillcolor="#4ca6e8"] ;
218 -> 228 ;
229 [label="gini = 0.0\nsamples = 1\nvalue = [1, 0]\nclass = 0", fillcolor="#e58139"] ;
228 -> 229 ;
230 [label="T-JUS-CKP <= 38.146\ngini = 0.114\nsamples = 33\nvalue = [2, 31]\nclass = 1", fillcolor="#46a3e7"] ;
228 -> 230 ;
231 [label="gini = 0.0\nsamples = 2\nvalue = [2, 0]\nclass = 0", fillcolor="#e58139"] ;
230 -> 231 ;
232 [label="gini = 0.0\nsamples = 31\nvalue = [0, 31]\nclass = 1", fillcolor="#399de5"] ;
230 -> 232 ;
233 [label="gini = 0.0\nsamples = 3\nvalue = [3, 0]\nclass = 0", fillcolor="#e58139"] ;
217 -> 233 ;
234 [label="P-TPT <= 13783995.0\ngini = 0.314\nsamples = 1749\nvalue = [341, 1408]\nclass = 1", fillcolor="#69b5eb"] ;
214 -> 234 ;
235 [label="T-TPT <= 56.551\ngini = 0.263\nsamples = 1430\nvalue = [223, 1207]\nclass = 1", fillcolor="#5eafea"] ;
234 -> 235 ;
236 [label="gini = 0.0\nsamples = 51\nvalue = [51, 0]\nclass = 0", fillcolor="#e58139"] ;
235 -> 236 ;
237 [label="T-TPT <= 56.607\ngini = 0.218\nsamples = 1379\nvalue = [172, 1207]\nclass = 1", fillcolor="#55abe9"] ;
235 -> 237 ;
238 [label="P-PDG <= 23398015.0\ngini = 0.342\nsamples = 228\nvalue = [50, 178]\nclass = 1", fillcolor="#71b9ec"] ;
237 -> 238 ;
239 [label="gini = 0.0\nsamples = 26\nvalue = [26, 0]\nclass = 0", fillcolor="#e58139"] ;
238 -> 239 ;
240 [label="P-PDG <= 23427785.0\ngini = 0.209\nsamples = 202\nvalue = [24, 178]\nclass = 1", fillcolor="#54aae9"] ;
238 -> 240 ;
241 [label="T-JUS-CKP <= 38.105\ngini = 0.183\nsamples = 187\nvalue = [19, 168]\nclass = 1", fillcolor="#4fa8e8"] ;
240 -> 241 ;
242 [label="P-PDG <= 23424370.0\ngini = 0.225\nsamples = 147\nvalue = [19, 128]\nclass = 1", fillcolor="#56ace9"] ;
241 -> 242 ;
243 [label="P-JUS-CKGL <= 19747075.0\ngini = 0.198\nsamples = 144\nvalue = [16, 128]\nclass = 1", fillcolor="#52a9e8"] ;
242 -> 243 ;
244 [label="P-TPT <= 13739200.0\ngini = 0.397\nsamples = 11\nvalue = [8, 3]\nclass = 0", fillcolor="#efb083"] ;
243 -> 244 ;
245 [label="gini = 0.0\nsamples = 6\nvalue = [6, 0]\nclass = 0", fillcolor="#e58139"] ;
244 -> 245 ;
246 [label="T-JUS-CKP <= 38.076\ngini = 0.48\nsamples = 5\nvalue = [2, 3]\nclass = 1", fillcolor="#bddef6"] ;
244 -> 246 ;
247 [label="gini = 0.0\nsamples = 3\nvalue = [0, 3]\nclass = 1", fillcolor="#399de5"] ;
246 -> 247 ;
248 [label="gini = 0.0\nsamples = 2\nvalue = [2, 0]\nclass = 0", fillcolor="#e58139"] ;
246 -> 248 ;
249 [label="P-TPT <= 13766695.0\ngini = 0.113\nsamples = 133\nvalue = [8, 125]\nclass = 1", fillcolor="#46a3e7"] ;
243 -> 249 ;
250 [label="T-TPT <= 56.605\ngini = 0.087\nsamples = 131\nvalue = [6, 125]\nclass = 1", fillcolor="#43a2e6"] ;
249 -> 250 ;
251 [label="T-JUS-CKP <= 38.068\ngini = 0.033\nsamples = 119\nvalue = [2, 117]\nclass = 1", fillcolor="#3c9fe5"] ;
250 -> 251 ;
252 [label="gini = 0.0\nsamples = 68\nvalue = [0, 68]\nclass = 1", fillcolor="#399de5"] ;
251 -> 252 ;
253 [label="P-MON-CKP <= 2355938.5\ngini = 0.075\nsamples = 51\nvalue = [2, 49]\nclass = 1", fillcolor="#41a1e6"] ;
251 -> 253 ;
254 [label="P-PDG <= 23414335.0\ngini = 0.039\nsamples = 50\nvalue = [1, 49]\nclass = 1", fillcolor="#3d9fe6"] ;
253 -> 254 ;
255 [label="T-JUS-CKP <= 38.072\ngini = 0.32\nsamples = 5\nvalue = [1, 4]\nclass = 1", fillcolor="#6ab6ec"] ;
254 -> 255 ;
256 [label="gini = 0.0\nsamples = 4\nvalue = [0, 4]\nclass = 1", fillcolor="#399de5"] ;
255 -> 256 ;
257 [label="gini = 0.0\nsamples = 1\nvalue = [1, 0]\nclass = 0", fillcolor="#e58139"] ;
255 -> 257 ;
258 [label="gini = 0.0\nsamples = 45\nvalue = [0, 45]\nclass = 1", fillcolor="#399de5"] ;
254 -> 258 ;
259 [label="gini = 0.0\nsamples = 1\nvalue = [1, 0]\nclass = 0", fillcolor="#e58139"] ;
253 -> 259 ;
260 [label="P-MON-CKP <= 2284006.5\ngini = 0.444\nsamples = 12\nvalue = [4, 8]\nclass = 1", fillcolor="#9ccef2"] ;
250 -> 260 ;
261 [label="gini = 0.0\nsamples = 8\nvalue = [0, 8]\nclass = 1", fillcolor="#399de5"] ;
260 -> 261 ;
262 [label="gini = 0.0\nsamples = 4\nvalue = [4, 0]\nclass = 0", fillcolor="#e58139"] ;
260 -> 262 ;
263 [label="gini = 0.0\nsamples = 2\nvalue = [2, 0]\nclass = 0", fillcolor="#e58139"] ;
249 -> 263 ;
264 [label="gini = 0.0\nsamples = 3\nvalue = [3, 0]\nclass = 0", fillcolor="#e58139"] ;
242 -> 264 ;
265 [label="gini = 0.0\nsamples = 40\nvalue = [0, 40]\nclass = 1", fillcolor="#399de5"] ;
241 -> 265 ;
266 [label="T-TPT <= 56.562\ngini = 0.444\nsamples = 15\nvalue = [5, 10]\nclass = 1", fillcolor="#9ccef2"] ;
240 -> 266 ;
267 [label="gini = 0.0\nsamples = 10\nvalue = [0, 10]\nclass = 1", fillcolor="#399de5"] ;
266 -> 267 ;
268 [label="gini = 0.0\nsamples = 5\nvalue = [5, 0]\nclass = 0", fillcolor="#e58139"] ;
266 -> 268 ;
269 [label="QGL <= 1.979\ngini = 0.19\nsamples = 1151\nvalue = [122, 1029]\nclass = 1", fillcolor="#50a9e8"] ;
237 -> 269 ;
270 [label="P-MON-CKP <= 2072946.0\ngini = 0.183\nsamples = 1146\nvalue = [117, 1029]\nclass = 1", fillcolor="#50a8e8"] ;
269 -> 270 ;
271 [label="P-JUS-CKGL <= 19769375.0\ngini = 0.018\nsamples = 323\nvalue = [3, 320]\nclass = 1", fillcolor="#3b9ee5"] ;
270 -> 271 ;
272 [label="T-TPT <= 56.693\ngini = 0.034\nsamples = 172\nvalue = [3, 169]\nclass = 1", fillcolor="#3d9fe5"] ;
271 -> 272 ;
273 [label="P-TPT <= 13769855.0\ngini = 0.103\nsamples = 55\nvalue = [3, 52]\nclass = 1", fillcolor="#44a3e6"] ;
272 -> 273 ;
274 [label="gini = 0.0\nsamples = 3\nvalue = [3, 0]\nclass = 0", fillcolor="#e58139"] ;
273 -> 274 ;
275 [label="gini = 0.0\nsamples = 52\nvalue = [0, 52]\nclass = 1", fillcolor="#399de5"] ;
273 -> 275 ;
276 [label="gini = 0.0\nsamples = 117\nvalue = [0, 117]\nclass = 1", fillcolor="#399de5"] ;
272 -> 276 ;
277 [label="gini = 0.0\nsamples = 151\nvalue = [0, 151]\nclass = 1", fillcolor="#399de5"] ;
271 -> 277 ;
278 [label="P-PDG <= 23335820.0\ngini = 0.239\nsamples = 823\nvalue = [114, 709]\nclass = 1", fillcolor="#59ade9"] ;
270 -> 278 ;
279 [label="gini = 0.0\nsamples = 186\nvalue = [0, 186]\nclass = 1", fillcolor="#399de5"] ;
278 -> 279 ;
280 [label="T-TPT <= 56.762\ngini = 0.294\nsamples = 637\nvalue = [114, 523]\nclass = 1", fillcolor="#64b2eb"] ;
278 -> 280 ;
281 [label="P-MON-CKP <= 2458135.0\ngini = 0.191\nsamples = 570\nvalue = [61, 509]\nclass = 1", fillcolor="#51a9e8"] ;
280 -> 281 ;
282 [label="P-TPT <= 13629250.0\ngini = 0.168\nsamples = 561\nvalue = [52, 509]\nclass = 1", fillcolor="#4da7e8"] ;
281 -> 282 ;
283 [label="gini = 0.0\nsamples = 147\nvalue = [0, 147]\nclass = 1", fillcolor="#399de5"] ;
282 -> 283 ;
284 [label="T-JUS-CKP <= 37.863\ngini = 0.22\nsamples = 414\nvalue = [52, 362]\nclass = 1", fillcolor="#55abe9"] ;
282 -> 284 ;
285 [label="gini = 0.0\nsamples = 14\nvalue = [14, 0]\nclass = 0", fillcolor="#e58139"] ;
284 -> 285 ;
286 [label="T-TPT <= 56.745\ngini = 0.172\nsamples = 400\nvalue = [38, 362]\nclass = 1", fillcolor="#4ea7e8"] ;
284 -> 286 ;
287 [label="P-MON-CKP <= 2073704.0\ngini = 0.149\nsamples = 394\nvalue = [32, 362]\nclass = 1", fillcolor="#4ba6e7"] ;
286 -> 287 ;
288 [label="gini = 0.0\nsamples = 1\nvalue = [1, 0]\nclass = 0", fillcolor="#e58139"] ;
287 -> 288 ;
289 [label="P-TPT <= 13693175.0\ngini = 0.145\nsamples = 393\nvalue = [31, 362]\nclass = 1", fillcolor="#4aa5e7"] ;
287 -> 289 ;
290 [label="T-TPT <= 56.707\ngini = 0.232\nsamples = 142\nvalue = [19, 123]\nclass = 1", fillcolor="#58ace9"] ;
289 -> 290 ;
291 [label="T-JUS-CKP <= 37.992\ngini = 0.173\nsamples = 136\nvalue = [13, 123]\nclass = 1", fillcolor="#4ea7e8"] ;
290 -> 291 ;
292 [label="T-JUS-CKP <= 37.94\ngini = 0.151\nsamples = 134\nvalue = [11, 123]\nclass = 1", fillcolor="#4ba6e7"] ;
291 -> 292 ;
293 [label="T-TPT <= 56.659\ngini = 0.028\nsamples = 71\nvalue = [1, 70]\nclass = 1", fillcolor="#3c9ee5"] ;
292 -> 293 ;
294 [label="gini = 0.444\nsamples = 3\nvalue = [1, 2]\nclass = 1", fillcolor="#9ccef2"] ;
293 -> 294 ;
295 [label="gini = 0.0\nsamples = 68\nvalue = [0, 68]\nclass = 1", fillcolor="#399de5"] ;
293 -> 295 ;
296 [label="T-TPT <= 56.622\ngini = 0.267\nsamples = 63\nvalue = [10, 53]\nclass = 1", fillcolor="#5eafea"] ;
292 -> 296 ;
297 [label="gini = 0.0\nsamples = 3\nvalue = [3, 0]\nclass = 0", fillcolor="#e58139"] ;
296 -> 297 ;
298 [label="P-MON-CKP <= 2385105.0\ngini = 0.206\nsamples = 60\nvalue = [7, 53]\nclass = 1", fillcolor="#53aae8"] ;
296 -> 298 ;
299 [label="P-JUS-CKGL <= 19806465.0\ngini = 0.071\nsamples = 54\nvalue = [2, 52]\nclass = 1", fillcolor="#41a1e6"] ;
298 -> 299 ;
300 [label="gini = 0.0\nsamples = 52\nvalue = [0, 52]\nclass = 1", fillcolor="#399de5"] ;
299 -> 300 ;
301 [label="gini = 0.0\nsamples = 2\nvalue = [2, 0]\nclass = 0", fillcolor="#e58139"] ;
299 -> 301 ;
302 [label="T-TPT <= 56.647\ngini = 0.278\nsamples = 6\nvalue = [5, 1]\nclass = 0", fillcolor="#ea9a61"] ;
298 -> 302 ;
303 [label="gini = 0.0\nsamples = 5\nvalue = [5, 0]\nclass = 0", fillcolor="#e58139"] ;
302 -> 303 ;
304 [label="gini = 0.0\nsamples = 1\nvalue = [0, 1]\nclass = 1", fillcolor="#399de5"] ;
302 -> 304 ;
305 [label="gini = 0.0\nsamples = 2\nvalue = [2, 0]\nclass = 0", fillcolor="#e58139"] ;
291 -> 305 ;
306 [label="gini = 0.0\nsamples = 6\nvalue = [6, 0]\nclass = 0", fillcolor="#e58139"] ;
290 -> 306 ;
307 [label="P-JUS-CKGL <= 19769315.0\ngini = 0.091\nsamples = 251\nvalue = [12, 239]\nclass = 1", fillcolor="#43a2e6"] ;
289 -> 307 ;
308 [label="gini = 0.0\nsamples = 113\nvalue = [0, 113]\nclass = 1", fillcolor="#399de5"] ;
307 -> 308 ;
309 [label="T-TPT <= 56.631\ngini = 0.159\nsamples = 138\nvalue = [12, 126]\nclass = 1", fillcolor="#4ca6e7"] ;
307 -> 309 ;
310 [label="P-JUS-CKGL <= 19774710.0\ngini = 0.016\nsamples = 127\nvalue = [1, 126]\nclass = 1", fillcolor="#3b9ee5"] ;
309 -> 310 ;
311 [label="T-JUS-CKP <= 38.031\ngini = 0.245\nsamples = 7\nvalue = [1, 6]\nclass = 1", fillcolor="#5aade9"] ;
310 -> 311 ;
312 [label="gini = 0.0\nsamples = 6\nvalue = [0, 6]\nclass = 1", fillcolor="#399de5"] ;
311 -> 312 ;
313 [label="gini = 0.0\nsamples = 1\nvalue = [1, 0]\nclass = 0", fillcolor="#e58139"] ;
311 -> 313 ;
314 [label="gini = 0.0\nsamples = 120\nvalue = [0, 120]\nclass = 1", fillcolor="#399de5"] ;
310 -> 314 ;
315 [label="gini = 0.0\nsamples = 11\nvalue = [11, 0]\nclass = 0", fillcolor="#e58139"] ;
309 -> 315 ;
316 [label="gini = 0.0\nsamples = 6\nvalue = [6, 0]\nclass = 0", fillcolor="#e58139"] ;
286 -> 316 ;
317 [label="gini = 0.0\nsamples = 9\nvalue = [9, 0]\nclass = 0", fillcolor="#e58139"] ;
281 -> 317 ;
318 [label="P-MON-CKP <= 2106166.0\ngini = 0.331\nsamples = 67\nvalue = [53, 14]\nclass = 0", fillcolor="#eca26d"] ;
280 -> 318 ;
319 [label="T-TPT <= 56.771\ngini = 0.219\nsamples = 16\nvalue = [2, 14]\nclass = 1", fillcolor="#55abe9"] ;
318 -> 319 ;
320 [label="gini = 0.0\nsamples = 2\nvalue = [2, 0]\nclass = 0", fillcolor="#e58139"] ;
319 -> 320 ;
321 [label="gini = 0.0\nsamples = 14\nvalue = [0, 14]\nclass = 1", fillcolor="#399de5"] ;
319 -> 321 ;
322 [label="gini = 0.0\nsamples = 51\nvalue = [51, 0]\nclass = 0", fillcolor="#e58139"] ;
318 -> 322 ;
323 [label="gini = 0.0\nsamples = 5\nvalue = [5, 0]\nclass = 0", fillcolor="#e58139"] ;
269 -> 323 ;
324 [label="P-TPT <= 13789795.0\ngini = 0.466\nsamples = 319\nvalue = [118, 201]\nclass = 1", fillcolor="#add7f4"] ;
234 -> 324 ;
325 [label="QGL <= 1.598\ngini = 0.451\nsamples = 32\nvalue = [21, 11]\nclass = 0", fillcolor="#f3c3a1"] ;
324 -> 325 ;
326 [label="T-TPT <= 56.597\ngini = 0.493\nsamples = 25\nvalue = [14, 11]\nclass = 0", fillcolor="#f9e4d5"] ;
325 -> 326 ;
327 [label="gini = 0.0\nsamples = 10\nvalue = [10, 0]\nclass = 0", fillcolor="#e58139"] ;
326 -> 327 ;
328 [label="T-JUS-CKP <= 38.033\ngini = 0.391\nsamples = 15\nvalue = [4, 11]\nclass = 1", fillcolor="#81c1ee"] ;
326 -> 328 ;
329 [label="gini = 0.0\nsamples = 4\nvalue = [4, 0]\nclass = 0", fillcolor="#e58139"] ;
328 -> 329 ;
330 [label="gini = 0.0\nsamples = 11\nvalue = [0, 11]\nclass = 1", fillcolor="#399de5"] ;
328 -> 330 ;
331 [label="gini = 0.0\nsamples = 7\nvalue = [7, 0]\nclass = 0", fillcolor="#e58139"] ;
325 -> 331 ;
332 [label="P-JUS-CKGL <= 19758165.0\ngini = 0.447\nsamples = 287\nvalue = [97, 190]\nclass = 1", fillcolor="#9ecff2"] ;
324 -> 332 ;
333 [label="T-JUS-CKP <= 38.173\ngini = 0.142\nsamples = 65\nvalue = [60, 5]\nclass = 0", fillcolor="#e78c49"] ;
332 -> 333 ;
334 [label="gini = 0.0\nsamples = 53\nvalue = [53, 0]\nclass = 0", fillcolor="#e58139"] ;
333 -> 334 ;
335 [label="P-TPT <= 13818510.0\ngini = 0.486\nsamples = 12\nvalue = [7, 5]\nclass = 0", fillcolor="#f8dbc6"] ;
333 -> 335 ;
336 [label="gini = 0.0\nsamples = 7\nvalue = [7, 0]\nclass = 0", fillcolor="#e58139"] ;
335 -> 336 ;
337 [label="gini = 0.0\nsamples = 5\nvalue = [0, 5]\nclass = 1", fillcolor="#399de5"] ;
335 -> 337 ;
338 [label="T-JUS-CKP <= 38.068\ngini = 0.278\nsamples = 222\nvalue = [37, 185]\nclass = 1", fillcolor="#61b1ea"] ;
332 -> 338 ;
339 [label="gini = 0.0\nsamples = 25\nvalue = [25, 0]\nclass = 0", fillcolor="#e58139"] ;
338 -> 339 ;
340 [label="P-PDG <= 23458035.0\ngini = 0.114\nsamples = 197\nvalue = [12, 185]\nclass = 1", fillcolor="#46a3e7"] ;
338 -> 340 ;
341 [label="P-JUS-CKGL <= 19769985.0\ngini = 0.106\nsamples = 196\nvalue = [11, 185]\nclass = 1", fillcolor="#45a3e7"] ;
340 -> 341 ;
342 [label="T-TPT <= 56.557\ngini = 0.391\nsamples = 15\nvalue = [4, 11]\nclass = 1", fillcolor="#81c1ee"] ;
341 -> 342 ;
343 [label="gini = 0.0\nsamples = 11\nvalue = [0, 11]\nclass = 1", fillcolor="#399de5"] ;
342 -> 343 ;
344 [label="gini = 0.0\nsamples = 4\nvalue = [4, 0]\nclass = 0", fillcolor="#e58139"] ;
342 -> 344 ;
345 [label="P-MON-CKP <= 2150257.0\ngini = 0.074\nsamples = 181\nvalue = [7, 174]\nclass = 1", fillcolor="#41a1e6"] ;
341 -> 345 ;
346 [label="gini = 0.0\nsamples = 6\nvalue = [6, 0]\nclass = 0", fillcolor="#e58139"] ;
345 -> 346 ;
347 [label="P-PDG <= 23434305.0\ngini = 0.011\nsamples = 175\nvalue = [1, 174]\nclass = 1", fillcolor="#3a9ee5"] ;
345 -> 347 ;
348 [label="T-TPT <= 56.599\ngini = 0.051\nsamples = 38\nvalue = [1, 37]\nclass = 1", fillcolor="#3ea0e6"] ;
347 -> 348 ;
349 [label="gini = 0.375\nsamples = 4\nvalue = [1, 3]\nclass = 1", fillcolor="#7bbeee"] ;
348 -> 349 ;
350 [label="gini = 0.0\nsamples = 34\nvalue = [0, 34]\nclass = 1", fillcolor="#399de5"] ;
348 -> 350 ;
351 [label="gini = 0.0\nsamples = 137\nvalue = [0, 137]\nclass = 1", fillcolor="#399de5"] ;
347 -> 351 ;
352 [label="gini = 0.0\nsamples = 1\nvalue = [1, 0]\nclass = 0", fillcolor="#e58139"] ;
340 -> 352 ;
353 [label="P-JUS-CKGL <= 19779920.0\ngini = 0.034\nsamples = 462\nvalue = [8, 454]\nclass = 1", fillcolor="#3c9fe5"] ;
213 -> 353 ;
354 [label="P-MON-CKP <= 1962908.5\ngini = 0.057\nsamples = 205\nvalue = [6, 199]\nclass = 1", fillcolor="#3fa0e6"] ;
353 -> 354 ;
355 [label="T-TPT <= 56.626\ngini = 0.469\nsamples = 16\nvalue = [6, 10]\nclass = 1", fillcolor="#b0d8f5"] ;
354 -> 355 ;
356 [label="gini = 0.0\nsamples = 6\nvalue = [6, 0]\nclass = 0", fillcolor="#e58139"] ;
355 -> 356 ;
357 [label="gini = 0.0\nsamples = 10\nvalue = [0, 10]\nclass = 1", fillcolor="#399de5"] ;
355 -> 357 ;
358 [label="gini = 0.0\nsamples = 189\nvalue = [0, 189]\nclass = 1", fillcolor="#399de5"] ;
354 -> 358 ;
359 [label="P-MON-CKP <= 2009083.0\ngini = 0.015\nsamples = 257\nvalue = [2, 255]\nclass = 1", fillcolor="#3b9ee5"] ;
353 -> 359 ;
360 [label="QGL <= 1.713\ngini = 0.069\nsamples = 56\nvalue = [2, 54]\nclass = 1", fillcolor="#40a1e6"] ;
359 -> 360 ;
361 [label="gini = 0.0\nsamples = 2\nvalue = [2, 0]\nclass = 0", fillcolor="#e58139"] ;
360 -> 361 ;
362 [label="gini = 0.0\nsamples = 54\nvalue = [0, 54]\nclass = 1", fillcolor="#399de5"] ;
360 -> 362 ;
363 [label="gini = 0.0\nsamples = 201\nvalue = [0, 201]\nclass = 1", fillcolor="#399de5"] ;
359 -> 363 ;
364 [label="P-PDG <= 23506955.0\ngini = 0.021\nsamples = 6760\nvalue = [71, 6689]\nclass = 1", fillcolor="#3b9ee5"] ;
144 -> 364 ;
365 [label="T-JUS-CKP <= 38.231\ngini = 0.063\nsamples = 1909\nvalue = [62, 1847]\nclass = 1", fillcolor="#40a0e6"] ;
364 -> 365 ;
366 [label="T-TPT <= 56.546\ngini = 0.095\nsamples = 1204\nvalue = [60, 1144]\nclass = 1", fillcolor="#43a2e6"] ;
365 -> 366 ;
367 [label="P-JUS-CKGL <= 19644525.0\ngini = 0.197\nsamples = 541\nvalue = [60, 481]\nclass = 1", fillcolor="#52a9e8"] ;
366 -> 367 ;
368 [label="gini = 0.0\nsamples = 441\nvalue = [0, 441]\nclass = 1", fillcolor="#399de5"] ;
367 -> 368 ;
369 [label="P-JUS-CKGL <= 19746830.0\ngini = 0.48\nsamples = 100\nvalue = [60, 40]\nclass = 0", fillcolor="#f6d5bd"] ;
367 -> 369 ;
370 [label="gini = 0.0\nsamples = 38\nvalue = [38, 0]\nclass = 0", fillcolor="#e58139"] ;
369 -> 370 ;
371 [label="QGL <= 1.216\ngini = 0.458\nsamples = 62\nvalue = [22, 40]\nclass = 1", fillcolor="#a6d3f3"] ;
369 -> 371 ;
372 [label="P-TPT <= 13920050.0\ngini = 0.091\nsamples = 42\nvalue = [2, 40]\nclass = 1", fillcolor="#43a2e6"] ;
371 -> 372 ;
373 [label="gini = 0.0\nsamples = 40\nvalue = [0, 40]\nclass = 1", fillcolor="#399de5"] ;
372 -> 373 ;
374 [label="gini = 0.0\nsamples = 2\nvalue = [2, 0]\nclass = 0", fillcolor="#e58139"] ;
372 -> 374 ;
375 [label="gini = 0.0\nsamples = 20\nvalue = [20, 0]\nclass = 0", fillcolor="#e58139"] ;
371 -> 375 ;
376 [label="gini = 0.0\nsamples = 663\nvalue = [0, 663]\nclass = 1", fillcolor="#399de5"] ;
366 -> 376 ;
377 [label="P-TPT <= 13935785.0\ngini = 0.006\nsamples = 705\nvalue = [2, 703]\nclass = 1", fillcolor="#3a9de5"] ;
365 -> 377 ;
378 [label="gini = 0.0\nsamples = 703\nvalue = [0, 703]\nclass = 1", fillcolor="#399de5"] ;
377 -> 378 ;
379 [label="gini = 0.0\nsamples = 2\nvalue = [2, 0]\nclass = 0", fillcolor="#e58139"] ;
377 -> 379 ;
380 [label="P-PDG <= 23520750.0\ngini = 0.004\nsamples = 4851\nvalue = [9, 4842]\nclass = 1", fillcolor="#399de5"] ;
364 -> 380 ;
381 [label="P-JUS-CKGL <= 19689255.0\ngini = 0.021\nsamples = 833\nvalue = [9, 824]\nclass = 1", fillcolor="#3b9ee5"] ;
380 -> 381 ;
382 [label="gini = 0.0\nsamples = 824\nvalue = [0, 824]\nclass = 1", fillcolor="#399de5"] ;
381 -> 382 ;
383 [label="gini = 0.0\nsamples = 9\nvalue = [9, 0]\nclass = 0", fillcolor="#e58139"] ;
381 -> 383 ;
384 [label="gini = 0.0\nsamples = 4018\nvalue = [0, 4018]\nclass = 1", fillcolor="#399de5"] ;
380 -> 384 ;
385 [label="gini = 0.0\nsamples = 297\nvalue = [297, 0]\nclass = 0", fillcolor="#e58139"] ;
143 -> 385 ;
386 [label="P-PDG <= 23473515.0\ngini = 0.175\nsamples = 3160\nvalue = [2854, 306]\nclass = 0", fillcolor="#e88f4e"] ;
142 -> 386 ;
387 [label="P-TPT <= 13618100.0\ngini = 0.018\nsamples = 2673\nvalue = [2649, 24]\nclass = 0", fillcolor="#e5823b"] ;
386 -> 387 ;
388 [label="gini = 0.0\nsamples = 2\nvalue = [0, 2]\nclass = 1", fillcolor="#399de5"] ;
387 -> 388 ;
389 [label="P-JUS-CKGL <= 19820165.0\ngini = 0.016\nsamples = 2671\nvalue = [2649, 22]\nclass = 0", fillcolor="#e5823b"] ;
387 -> 389 ;
390 [label="P-JUS-CKGL <= 19818710.0\ngini = 0.329\nsamples = 106\nvalue = [84, 22]\nclass = 0", fillcolor="#eca26d"] ;
389 -> 390 ;
391 [label="P-MON-CKP <= 2269082.5\ngini = 0.268\nsamples = 88\nvalue = [74, 14]\nclass = 0", fillcolor="#ea995e"] ;
390 -> 391 ;
392 [label="gini = 0.0\nsamples = 21\nvalue = [21, 0]\nclass = 0", fillcolor="#e58139"] ;
391 -> 392 ;
393 [label="P-TPT <= 13727655.0\ngini = 0.331\nsamples = 67\nvalue = [53, 14]\nclass = 0", fillcolor="#eca26d"] ;
391 -> 393 ;
394 [label="P-JUS-CKGL <= 19816530.0\ngini = 0.484\nsamples = 17\nvalue = [7, 10]\nclass = 1", fillcolor="#c4e2f7"] ;
393 -> 394 ;
395 [label="P-MON-CKP <= 2311999.0\ngini = 0.32\nsamples = 10\nvalue = [2, 8]\nclass = 1", fillcolor="#6ab6ec"] ;
394 -> 395 ;
396 [label="gini = 0.0\nsamples = 1\nvalue = [1, 0]\nclass = 0", fillcolor="#e58139"] ;
395 -> 396 ;
397 [label="T-TPT <= 56.585\ngini = 0.198\nsamples = 9\nvalue = [1, 8]\nclass = 1", fillcolor="#52a9e8"] ;
395 -> 397 ;
398 [label="gini = 0.0\nsamples = 1\nvalue = [1, 0]\nclass = 0", fillcolor="#e58139"] ;
397 -> 398 ;
399 [label="gini = 0.0\nsamples = 8\nvalue = [0, 8]\nclass = 1", fillcolor="#399de5"] ;
397 -> 399 ;
400 [label="P-PDG <= 23387365.0\ngini = 0.408\nsamples = 7\nvalue = [5, 2]\nclass = 0", fillcolor="#efb388"] ;
394 -> 400 ;
401 [label="gini = 0.0\nsamples = 5\nvalue = [5, 0]\nclass = 0", fillcolor="#e58139"] ;
400 -> 401 ;
402 [label="gini = 0.0\nsamples = 2\nvalue = [0, 2]\nclass = 1", fillcolor="#399de5"] ;
400 -> 402 ;
403 [label="P-PDG <= 23451265.0\ngini = 0.147\nsamples = 50\nvalue = [46, 4]\nclass = 0", fillcolor="#e78c4a"] ;
393 -> 403 ;
404 [label="gini = 0.0\nsamples = 46\nvalue = [46, 0]\nclass = 0", fillcolor="#e58139"] ;
403 -> 404 ;
405 [label="gini = 0.0\nsamples = 4\nvalue = [0, 4]\nclass = 1", fillcolor="#399de5"] ;
403 -> 405 ;
406 [label="P-PDG <= 23450905.0\ngini = 0.494\nsamples = 18\nvalue = [10, 8]\nclass = 0", fillcolor="#fae6d7"] ;
390 -> 406 ;
407 [label="P-JUS-CKGL <= 19819860.0\ngini = 0.165\nsamples = 11\nvalue = [10, 1]\nclass = 0", fillcolor="#e88e4d"] ;
406 -> 407 ;
408 [label="gini = 0.0\nsamples = 8\nvalue = [8, 0]\nclass = 0", fillcolor="#e58139"] ;
407 -> 408 ;
409 [label="gini = 0.444\nsamples = 3\nvalue = [2, 1]\nclass = 0", fillcolor="#f2c09c"] ;
407 -> 409 ;
410 [label="gini = 0.0\nsamples = 7\nvalue = [0, 7]\nclass = 1", fillcolor="#399de5"] ;
406 -> 410 ;
411 [label="gini = 0.0\nsamples = 2565\nvalue = [2565, 0]\nclass = 0", fillcolor="#e58139"] ;
389 -> 411 ;
412 [label="P-MON-CKP <= 2145901.0\ngini = 0.488\nsamples = 487\nvalue = [205, 282]\nclass = 1", fillcolor="#c9e4f8"] ;
386 -> 412 ;
413 [label="P-JUS-CKGL <= 19934830.0\ngini = 0.266\nsamples = 335\nvalue = [53, 282]\nclass = 1", fillcolor="#5eafea"] ;
412 -> 413 ;
414 [label="P-TPT <= 13915835.0\ngini = 0.014\nsamples = 284\nvalue = [2, 282]\nclass = 1", fillcolor="#3a9ee5"] ;
413 -> 414 ;
415 [label="gini = 0.0\nsamples = 282\nvalue = [0, 282]\nclass = 1", fillcolor="#399de5"] ;
414 -> 415 ;
416 [label="gini = 0.0\nsamples = 2\nvalue = [2, 0]\nclass = 0", fillcolor="#e58139"] ;
414 -> 416 ;
417 [label="gini = 0.0\nsamples = 51\nvalue = [51, 0]\nclass = 0", fillcolor="#e58139"] ;
413 -> 417 ;
418 [label="gini = 0.0\nsamples = 152\nvalue = [152, 0]\nclass = 0", fillcolor="#e58139"] ;
412 -> 418 ;
}